svm_type epsilon_svr
kernel_type rbf
gamma 0.0078125
nr_class 2
total_sv 15
rho -7.061491733004115
SV
-0.2237287775254621 1:-1.0 2:-14.0 
-2.0 1:0.0 2:-21.0 
2.0 1:1.0 2:-11.0 
-2.0 1:2.0 2:-18.0 
-2.0 1:3.0 2:-8.0 
2.0 1:4.0 2:-15.0 
-2.0 1:5.0 2:-22.0 
2.0 1:6.0 2:-12.0 
2.0 1:7.0 2:-19.0 
-2.0 1:8.0 2:-9.0 
0.34017797102804553 1:9.0 2:-16.0 
0.17883398963381858 1:10.0 2:-23.0 
2.0 1:12.0 2:-20.0 
0.7620173967532103 1:13.0 2:-10.0 
-1.0573005798896122 1:14.0 2:-17.0 
